{
  "model_name": "veltrix_linear_signal",
  "version": "1.0.0",
  "feature_names": [
    "return_1",
    "return_3",
    "return_5",
    "return_10",
    "log_return_1",
    "range_pct",
    "body_pct",
    "upper_wick_pct",
    "lower_wick_pct",
    "volume_z_10",
    "volume_z_20",
    "volatility_5",
    "volatility_10",
    "volatility_20",
    "momentum_5",
    "momentum_10",
    "trend_slope_10",
    "trend_slope_20",
    "sma_5_gap",
    "sma_20_gap",
    "ema_12_gap",
    "ema_20_gap",
    "macd_line",
    "macd_signal",
    "macd_histogram",
    "rsi_14",
    "bollinger_bandwidth",
    "atr_14_pct",
    "drawdown_20",
    "price_to_high_20",
    "price_to_low_20",
    "avg_range_10",
    "avg_range_20"
  ],
  "feature_mean": [
    0.0017454768496856432,
    0.0034501363028597858,
    0.006423953153605554,
    0.01015497051353352,
    0.0009050537070568311,
    0.031019262842363095,
    0.04431213130932232,
    0.33021812514255233,
    0.304654889401143,
    0.014932355456812103,
    0.03437994374570832,
    0.029974432700560633,
    0.03471396445493431,
    0.0335108257488718,
    0.006423953153605554,
    0.01015497051353352,
    0.14581693861693865,
    0.1251228455754772,
    0.001701007245324707,
    0.0074817712451353754,
    0.004032113812762938,
    0.005257732350692543,
    0.5043658523183916,
    0.35788486481017945,
    0.14648098750821129,
    50.29946012385416,
    0.13485253745562928,
    0.04204695707511641,
    -0.05544183796597453,
    0.9325830190268137,
    1.0840737535713125,
    0.030918773915734273,
    0.03060495384520368
  ],
  "feature_scale": [
    0.04110034473870185,
    0.05193723325291476,
    0.05484135905279874,
    0.06233695765963717,
    0.04096148111905526,
    0.014424442205874823,
    0.4181597264566764,
    0.20458248387158406,
    0.18776144903785505,
    0.9746506773875377,
    0.9743860005857681,
    0.023510579278060353,
    0.016347727808682776,
    0.01421626854678352,
    0.05484135905279874,
    0.06233695765963717,
    0.8464090339235291,
    0.4740954579542276,
    0.03231410856472116,
    0.04781507057644196,
    0.036711630867771385,
    0.04334330407646752,
    2.4486649147749895,
    2.3694251767628978,
    0.7600269086173426,
    11.197619168666023,
    0.04423292778383959,
    0.009416655619759379,
    0.0518066547708048,
    0.05351137951015043,
    0.052829557640994944,
    0.004520341893165314,
    0.003304305119723767
  ],
  "weights": [
    -0.0009524789407845281,
    -0.17233375426247902,
    0.17574143686700064,
    -0.3584389130289997,
    0.05791846487113422,
    -0.019639192492097828,
    0.06121698804684397,
    -0.31557543184804365,
    -0.13946881240605447,
    -0.09950528605685605,
    -0.05448562106818107,
    -0.41855879213568803,
    -0.2995917021103497,
    0.13375609884231804,
    0.17574143686700064,
    -0.3584389130289997,
    0.18793583559459406,
    0.25025346502056234,
    -0.21193792951356538,
    0.025478113704388013,
    -0.09034449529023027,
    -0.020446396328557312,
    0.03599368426907252,
    -0.03318451317346786,
    0.2194194586062521,
    -0.09906229703400009,
    0.10881192236742224,
    0.09246159408548335,
    -0.14967518745387343,
    -0.1004003720205682,
    -0.07452668785194673,
    0.0845036436772617,
    -0.2571548893282539
  ],
  "bias": -0.008500129906505218,
  "threshold": 0.5,
  "metadata": {
    "samples": 195,
    "features": 33,
    "labels_positive": 98
  }
}